{"W1": [[1.2509780276083346e-22], [-4.7113985045570675e-23], [-4.067677180392757e-23]], "b1": [[1.4575233556704348e-23], [-5.489283749764344e-24], [-4.739279478061557e-24]], "W2": [[-0.39048088356617794, 0.5013099347990975, -1.3273550887079246], [0.5563113539290159, -0.37451126830159115, 0.24029191924589471]], "b2": [[5.254736887709849e-23], [-4.4650964062754806e-23]], "W3": [[-0.15856751652428014, 0.794214873848586], [-1.4484224803696846, -0.1845197491658357]], "b3": [[-4.4766939934217655e-24], [8.08104647967022e-23]], "W4": [[-0.22728357716907557, 0.7988317543449718]], "b4": [[-6.292573844767081e-23]], "A0": [[0.8064005807754863]], "Z1": [[1.1545417435677767e-22], [-4.3482028653160115e-23], [-3.754105188482067e-23]], "A1": [[1.1545417435677767e-22], [0.0], [0.0]], "Z1:activation": 1, "Z2": [[7.46472086286038e-24], [1.9577503990420848e-23]], "A2": [[7.46472086286038e-24], [1.9577503990420848e-23]], "Z2:activation": 1, "Z3": [[9.888388619829765e-24], [6.638595916364503e-23]], "A3": [[9.888388619829765e-24], [6.638595916364503e-23]], "Z3:activation": 1, "Z4": [[-1.2141994563055478e-23]], "A4": [[0.5]], "Z4:activation": 3, "dA4": [[-0.16603168349025843, -1.3582776157170247, -1.502718161668997, -0.5528506397756772, -0.8955947198547323, -0.9412216133126687, -0.2117941478740648, -1.0855040506276126, -1.8048497621651771, -1.8788026095428108]], "dZ4": [[-8.545783381365414e-24, -4.512336111407979e-23, -4.7712878480678646e-23, -3.3921967492902836e-23, -1.4223780456533347e-23, -3.8852196253395247e-23, -8.219072736110233e-24, -4.087236918003275e-23, -3.650974137462009e-23, -5.717858698002496e-23]], "dW4": [[-4.794371242151516e-47, -1.044751726121341e-45]], "db4": [[-3.311597374497433e-23]], "dA3": [[1.9423162166287697e-24, 1.0255798927900019e-23, 1.084435369812205e-23, 7.709906116400054e-24, 3.232831703028486e-24, 8.830466145346627e-24, 1.8680602524759554e-24, 9.289618274612919e-24, 8.298064621141457e-24, 1.2995753786293203e-23], [-6.826643130788239e-24, -3.6045973720702037e-23, -3.811456242156897e-23, -2.7097944803188674e-23, -1.1362407495510258e-23, -3.103636809325487e-23, -6.565656292875865e-24, -3.265014637632091e-23, -2.916514075296897e-23, -4.56760709482199e-23]], "dZ3": [[2.2720958524305874e-23, -1.110637672727875e-23, -1.1461257504350987e-23, -9.571280139841554e-24, 7.383923984676946e-24, -1.0246944043947926e-23, 2.1929653936725108e-23, -1.0523798930990846e-23, -9.925921980779366e-24, -1.2758486876556106e-23], [7.826991490183878e-23, 2.6016510807936343e-23, 2.2774880323777368e-23, 4.003872957959985e-23, 6.679834645371836e-23, 3.3866930907756727e-23, 7.84537585049013e-23, 3.1338021765563186e-23, 3.6799281638726263e-23, 1.092544087941272e-23]], "dW3": [[-2.8825719385603717e-46, 1.6462824665042559e-46], [8.046471072807918e-46, 6.481015999077241e-46]], "db3": [[-2.355952975803761e-24], [4.252818157632309e-23]], "dA2": [[-1.169707102466958e-22, -3.592178853976821e-23, -3.117026550997813e-23, -5.647530188680223e-23, -9.792307714354256e-23, -4.7428791598909647e-23, -1.1711151825097679e-22, -4.37219625546681e-23, -5.172697798928054e-23, -1.3801572599068198e-23], [3.602978143181949e-24, -1.3621409639821233e-23, -1.3305116387589607e-23, -1.4989589387780225e-23, -6.461191876334953e-24, -1.4387392967313582e-23, 2.9405894944578436e-24, -1.4140641555919998e-23, -1.4673509091256304e-23, -1.2148939655758251e-23]], "dZ2": [[-2.0133089844542644e-24, 4.047264601670144e-23, 4.27106881129078e-23, 3.079161789009809e-23, 1.012266763854144e-23, 3.505266655199671e-23, -1.31397035018584e-24, 3.6798641346276403e-23, 3.302815314467849e-23, 5.0891615711698095e-23], [3.4511678373295647e-23, -5.053952677609769e-23, -4.99596084948473e-23, -5.304806099957495e-23, 1.7221762603973696e-23, -5.194394413755474e-23, 3.351534272958467e-23, -5.1491529634931455e-23, -1.541128600507803e-23, -4.7839778184163614e-23]], "dW2": [[2.542072762374652e-46, 5.343539210818129e-46, 4.6134481066195165e-46], [1.0991038366109996e-45, -7.466145598466162e-46, -6.4460414560550525e-46]], "db2": [[2.765414170782584e-23], [-2.3498495052539376e-23]], "dA1": [[1.9985397193352262e-23, -4.3919507144605385e-23, -4.4470804675579755e-23, -4.1534776798140197e-23, 5.627953867716284e-24, -4.258440209815053e-23, 1.9158045994610575e-23, -4.301448855401366e-23, -2.1470335805765348e-23, -4.6486014842510114e-23], [-1.3934304234526753e-23, 3.921696180805812e-23, 4.0121728614362605e-23, 3.5303240562734784e-23, -1.3751503013329589e-24, 3.70258423832586e-23, -1.3210579903798877e-23, 3.773168256436434e-23, 2.2329041567413716e-23, 4.3429008557270004e-23], [1.0965253358373e-23, -6.586581253055097e-23, -6.869713941888559e-23, -5.361843108583283e-23, -9.298124012410994e-24, -5.900904535058947e-23, 9.797571259406352e-24, -6.121786232940236e-23, -4.7543294639421237e-23, -7.90467572036612e-23]], "dZ1": [[1.4610075170450293e-22, -5.998173212891849e-23, -5.076411547263674e-23, -9.985408585317274e-23, 1.1502118511430152e-22, -8.230449945990484e-23, 1.4430978404462283e-22, -7.511351481646105e-23, 5.636150042770131e-23, -1.7070086827568892e-23], [-5.50240570101179e-23, 2.259015241004752e-23, 1.9118639372123658e-23, 3.7606766895976513e-23, -4.331895745410862e-23, 3.099729068903513e-23, -5.434954777268539e-23, 2.8289042138883844e-23, -2.1226710858969787e-23, 6.42888841987296e-24], [-4.750608568903655e-23, 1.950364575848664e-23, 1.6506447718002394e-23, 3.24685308158824e-23, -3.740026120567956e-23, 2.676211147663105e-23, -4.6923735070549385e-23, 2.4423892619612965e-23, -1.8326492079222655e-23, 5.550505374468845e-24]], "dW1": [[6.583531085975008e-23], [-2.4794710881108177e-23], [-2.1406994026925676e-23]], "db1": [[7.670518673246585e-24], [-2.8888493169942082e-24], [-2.494144028140386e-24]], "dA0": [[2.388166690939866e-44, -9.804629549400584e-45, -8.29791553105607e-45, -1.632217486951144e-44, 1.8801392863328923e-44, -1.3453514908819247e-44, 2.3588914869455234e-44, -1.227807468690537e-44, 9.21286553303071e-45, -2.7902808368504072e-45]], "NetworkLayers": [1, 3, 2, 2, 1]}